{
  "model_id": "balance_v1",
  "version": "1.0.0",
  "input_dim": 4,
  "output_dim": 3,
  "training_examples": 679,
  "validation_accuracy": 0.82,
  "created_at": "2026-01-22T09:06:45.301435",
  "layer1": {
    "weights": [
      0.08159984118268121,
      0.1990738253347587,
      -0.05750730435854409,
      0.18574123331919368,
      -0.2903359148782999,
      -0.16421796284795784,
      0.2547183752983057,
      0.15025755256282047,
      -0.25169232374560563,
      -0.19344104452841565,
      0.2486573864190394,
      -0.19308487795189624,
      -0.17537744194482036,
      0.09376299268311256,
      0.27760654040016935,
      0.12147810527964431,
      0.02535288180596018,
      0.18210557798296578,
      0.18493863008798928,
      0.2651056363593505,
      -0.1424121050309265,
      -0.12675704006259958,
      -0.17361345073804274,
      -0.1798869743606086,
      0.1553440548103983,
      -0.22266908051877174,
      -0.18186607687929418,
      -0.2348619210548933,
      0.2171003283842447,
      -0.1494823504806768,
      0.10215582325496197,
      0.04422004657639489,
      -0.18351598890174955,
      -0.10569754496433079,
      -0.2662622160655926,
      0.10152143065455493,
      -0.007212196308440555,
      -0.09495384571075316,
      -0.19457888837509918,
      -0.07204658111356155,
      0.11999685418918338,
      0.10205564072861373,
      -0.1482169303464468,
      0.038945651757724464,
      0.03852132017004123,
      -0.14576968597341589,
      -0.054193549181280526,
      0.2681483150948924,
      -0.03972211419634247,
      0.07802524607382533,
      -0.1587490886163231,
      -0.03096004998184604,
      0.28091763709331347,
      0.06311325277853047,
      0.16942061964948085,
      -0.010663594962449896,
      -0.25843315748492107,
      -0.040807204354513904,
      0.20169775812104762,
      -0.2018529946351599,
      0.20550963101476488,
      0.15022555957526074,
      -0.27605733974259056,
      -0.2382571392612745,
      0.0978111143798508,
      0.11767611693519581,
      -0.22719863284884714,
      -0.2487175744130028,
      0.15264309799252462,
      0.08493637020161893,
      -0.20475035414090553,
      -0.01778830261829456,
      -0.02554472898631671,
      -0.06796594244466655,
      -0.08577541957584883,
      0.10224550256407727,
      -0.0849547910048713,
      -0.28108401106898556,
      -0.0762602759860781,
      -0.05387437256798169,
      0.1517708317366766,
      0.11097440408935111,
      -0.03914118563029578,
      0.15920149479326312,
      0.13280462606598048,
      -0.1740289427353539,
      0.18962588873124747,
      0.24348140378091515,
      0.15911560531567975,
      0.025642438017123792,
      -0.11564282482571606,
      0.09862055641866596,
      0.1726291926414114,
      0.2911680422282262,
      0.03094700714115567,
      -0.12151619581948542,
      -0.0817836484223656,
      -0.08304683673618685,
      -0.1967692118038384,
      -0.06977702137263295,
      -0.1010490163307258,
      0.028289030500853463,
      0.17003402980472948,
      -0.14064042861274043,
      -0.1568436230804164,
      0.21387321646771712,
      -0.16604615936565256,
      0.1869582611584657,
      0.06078404017626515,
      0.21664481233368066,
      0.23462831866483563,
      -0.1694544068317783,
      0.07710215704324747,
      -0.1327390004610373,
      -0.18246168095289766,
      0.10797421851714528,
      0.265759315156535,
      0.08715079721669944,
      -0.0992627074199553,
      -0.28669324887974773,
      0.0838858043482949,
      0.05058774180289943,
      -0.2630176730453441,
      -0.07859602171103636,
      0.003555967728036402,
      -0.059275165447723904,
      0.0435681807515898,
      -0.1702306748704301,
      0.10941110287297945,
      0.07638763648152952,
      0.008742461846901528,
      -0.02524429152466967,
      0.017934659353611826,
      0.029488719055416113,
      0.040872068094081615,
      -0.2824081278538782,
      0.22486170720671445,
      0.12774502881629635,
      -0.017137182554082475,
      0.29461217464921546,
      -0.0818868189363886,
      0.0266050075315854,
      0.174164614442043,
      0.16047797852807266,
      0.009546361575410722,
      0.10300302876763989,
      0.18573197021212717,
      0.15988073213074988,
      -0.1948852057821728,
      -0.09103832296545403,
      -0.24442006782446452,
      0.22688766896148854,
      -0.25727528607736017,
      0.17313749258607103,
      -0.02845243452691415,
      0.18430544183210507,
      0.05219613737289486,
      -0.26291375327482847,
      -0.20247392306383105,
      0.2895577556764776,
      0.06746035432777492,
      -0.01854782748535866,
      0.2953139891660273,
      0.29371975829537883,
      0.05021493867291127,
      -0.21586942561717243,
      -0.19734156524465765,
      0.21274150275943754,
      0.007701252396591696,
      -0.1382689693874717,
      -0.08928282208307528,
      -0.0656843379682844,
      0.22684113205976503,
      0.19832107020872092,
      -0.10214218568421515,
      -0.13759381198826318,
      -0.22055619360659434,
      -0.26389434606797224,
      -0.0250998421327141,
      0.16961046300513616,
      0.20412637279060514,
      -0.22820211946659247,
      0.006504805996139729,
      -0.009464053333100741,
      0.2464871264992166,
      -0.042936360674675544,
      -0.23839897847440203,
      -0.06868175585056735,
      0.19493690000125297,
      -0.22243018444589674,
      -0.19771217881612058,
      0.05747978359108802,
      -0.12983682606337074,
      0.022441382084268158,
      0.10394307776436013,
      -0.18259540461644935,
      0.24279195104054646,
      0.04098666651958072,
      0.2085113255039644,
      0.24269948686968185,
      0.12086407482360556,
      -0.2820874427771515,
      0.10197085265529882,
      -0.08119321754683365,
      0.1512805460469222,
      -0.2750544175016879,
      0.18463773992213073,
      -0.18708559876447756,
      0.2829502525820163,
      0.18090683141535885,
      0.26639064924989325,
      -0.023218530837189555,
      0.2511271346219392,
      -0.20019196439859144,
      -0.04686135732331825,
      0.11787739752496024,
      0.2170263391925577,
      -0.1911601554689331,
      -0.03677950722116424,
      0.1969981436066366,
      -0.1796116940098412,
      0.10480706607334567,
      -0.1788552075208844,
      0.21384829865562632,
      0.2925734803248941,
      -0.2895103014588988,
      -0.29170074956133557,
      0.0005678737048033233,
      -0.2485930378218282,
      0.17912760149136364,
      0.2757198095866535,
      -0.016262750612818067,
      -0.15426016079770527,
      -0.18877812854309503,
      -0.0067366507876126525,
      -0.09711923664623254,
      0.11706606000667485,
      -0.11340935022431872,
      -0.1766340331436645,
      0.25135658673737943,
      0.01609404437340961,
      -0.20103919284348903,
      0.059978641206639316,
      -0.08644639350664982,
      -0.21097755754097952,
      0.14138233819976015,
      -0.1139710369528052,
      -0.09029241636834606,
      0.29407653236627257,
      0.20311898900486208,
      0.1748271518782626,
      -0.18814304230582826,
      0.17333111187943034,
      0.21034093316803876,
      0.29598874560309,
      -0.11327193548911457
    ],
    "bias": [
      0.0,
      0.0,
      0.0,
      0.0,
      0.0,
      0.0,
      0.0,
      0.0,
      0.0,
      0.0,
      0.0,
      0.0,
      0.0,
      0.0,
      0.0,
      0.0,
      0.0,
      0.0,
      0.0,
      0.0,
      0.0,
      0.0,
      0.0,
      0.0,
      0.0,
      0.0,
      0.0,
      0.0,
      0.0,
      0.0,
      0.0,
      0.0,
      0.0,
      0.0,
      0.0,
      0.0,
      0.0,
      0.0,
      0.0,
      0.0,
      0.0,
      0.0,
      0.0,
      0.0,
      0.0,
      0.0,
      0.0,
      0.0,
      0.0,
      0.0,
      0.0,
      0.0,
      0.0,
      0.0,
      0.0,
      0.0,
      0.0,
      0.0,
      0.0,
      0.0,
      0.0,
      0.0,
      0.0,
      0.0
    ],
    "activation": "relu"
  },
  "layer2": {
    "weights": [
      0.025951733737725025,
      0.059506323686884355,
      -0.03662992992783515,
      -0.04928898633571499,
      -0.2174196044063319,
      0.23518579162643144,
      -0.2425513035845711,
      -0.16495347780094416,
      0.18728260074786723,
      -0.03519395649084939,
      0.08432023747908785,
      -0.20968003442716565,
      0.024755807151188303,
      0.12366384100138667,
      -0.09275806445494811,
      -0.046567619140935546,
      0.05850539786129921,
      0.023434718932110077,
      -0.1050897754796023,
      -0.12718042899903742,
      0.004579443767475877,
      0.015255317994293194,
      -0.13020683647590592,
      -0.0029494308586372475,
      -0.09262143215931123,
      0.10381025356633827,
      0.08423599258625414,
      0.22219505446423737,
      -0.16936373199796773,
      0.12988527839667569,
      -0.24978083429209952,
      0.08273117213218889,
      -0.18332971018430377,
      0.2349154433627596,
      -0.10720926478318277,
      -0.0766962633437891,
      -0.06359680965062042,
      0.2308125614799466,
      -0.21230041790819398,
      -0.11308993558571778,
      -0.21358048387336853,
      -0.19272685757553149,
      0.0022410327841067,
      0.20559552337588777,
      -0.11105181789137136,
      0.10002723825622556,
      0.05822083257301758,
      -0.1942847773785878,
      0.1790988473751765,
      0.09495783304173216,
      0.14945635029558546,
      -0.10245483346160611,
      0.1003810208658687,
      0.1491421950415932,
      0.043507654611092406,
      -0.24920608101482772,
      -0.07515435638063894,
      0.08423924680105976,
      0.034033911565096386,
      0.07221503501743276,
      0.014775478285779908,
      0.029578813835940576,
      0.029636955497283846,
      0.021423318728830576,
      -0.03957248091882648,
      0.09198844641579784,
      -0.16424292537197338,
      -0.225556660849503,
      -0.09021335055204627,
      0.20073270796027382,
      -0.24916714315949234,
      -0.18952104064384084,
      -0.18244598377459204,
      -0.04712988089299025,
      -0.15243310531365606,
      -0.028679603195006342,
      0.08991757294003089,
      0.1451324202643589,
      0.07303563355170983,
      0.02475724188450068,
      -0.22466971688174586,
      -0.0013055991480460105,
      0.24191440921614266,
      -0.21813907930312887,
      0.10458542594361725,
      0.20056894964572425,
      -0.20390996094702024,
      0.21154266034662267,
      -0.13938075925253324,
      0.15057596411583596,
      -0.0868014651278477,
      0.20320572101048062,
      0.16809003934802497,
      0.18166378526658983,
      -0.17520525974840673,
      0.11775876292400561,
      0.2154322470465242,
      -0.21554437016803057,
      0.18548545934668192,
      -0.06083391781618458,
      0.11935661929467134,
      -0.016675229557907734,
      -0.23768237013243626,
      0.15905029596151393,
      0.14395528074352748,
      0.02957827289313275,
      -0.19120416062965556,
      0.23815603813516562,
      -0.22534607206930074,
      0.02296874176024849,
      -0.16216368901893885,
      0.18882867837792583,
      0.1052192850330757,
      -0.05490720225456763,
      0.09097871810179292,
      0.0259228559716414,
      -0.06207407927302577,
      -0.2084518667991282,
      0.24838613559755457,
      -0.09613603114979785,
      0.0024404431270934612,
      -0.08480152630298682,
      -0.042493899919759937,
      0.08059804887920302,
      -0.035969292030473055,
      0.021728836403776375,
      0.15545802317499002,
      -0.1948369244274048,
      0.2031054754613143,
      0.003270039481774789,
      -0.12850052377228488,
      0.043685884952008314,
      0.17082539986777978,
      -0.04445754660897416,
      0.04488360770326255,
      0.12581811540629817,
      -0.05589656208998384,
      0.21266018216666444,
      -0.1576733392992053,
      0.013889737220575071,
      -0.027130374544363955,
      0.036986596736765465,
      0.13041214041538618,
      -0.011849218151765095,
      0.1780064018871239,
      -0.15058510381616574,
      0.12948608717161775,
      -0.21246498440933181,
      0.039639821241038264,
      0.16832216664311678,
      -0.057599255448865294,
      0.21191951837586437,
      0.16809706513638972,
      0.12565111115366012,
      0.07067927562323262,
      -0.12638833052306103,
      -0.028926528127354134,
      -0.2203741949897985,
      0.2086380903335796,
      -0.05430738687825676,
      -0.1164695737071022,
      -0.1490149904236835,
      0.07354170698617246,
      -0.22929277680337623,
      0.16057430504367104,
      0.02885334197056172,
      0.0820597920717766,
      -0.22285451650489801,
      -0.1273063355246541,
      0.24423158497220393,
      -0.04377488526941753,
      0.0912375627167667,
      0.20141440015211387,
      0.14024422316876395,
      0.020119511553572833,
      -0.14273800005211962,
      0.08783454474392505,
      0.019404650269614354,
      0.06273265030448633,
      -0.09870369943815782,
      0.026296363848773097,
      0.06979700463731964,
      -0.18791609263695924,
      -0.1646349125566317,
      0.24299052098696494,
      -0.19964958100508867,
      -0.10708702325947528,
      -0.12379311974209722,
      -0.07029749163793636,
      0.06848880250068873,
      0.027570047022026478,
      -0.15553972742111616,
      -0.09410127712017341,
      0.24515638072027313,
      -0.016633204240066646,
      0.09182835078304297,
      0.23572284541891675,
      -0.18869567839928564,
      -0.12995416473010923,
      0.17580260513184864,
      0.1044616060349518,
      0.22522019263782356,
      0.0384927212596623,
      0.2391309000904292,
      -0.12424063538108615,
      0.1367871034297265,
      0.12935677738017615,
      0.1278458938585389,
      0.16951610679340684,
      0.031397877763472026,
      -0.059744699669529666,
      -0.03036888202526361,
      0.19137471354522922,
      0.22021654061438722,
      -0.24982165773589693,
      -0.22334848443410793,
      0.24985003094661112,
      -0.1429191611917786,
      0.19933592989806076,
      -0.019314943949596042,
      0.12631044652745343,
      0.07412006080614403,
      0.003782909894833264,
      -0.10091557624296033,
      -0.1678548298953922,
      -0.03777253910401107,
      0.05578705990135063,
      0.017496564279802396,
      0.08428647303933101,
      0.22860601799844016,
      0.09017078196863243,
      -0.0672596876661381,
      0.09921472424886674,
      -0.2010206538279416,
      0.223920969798371,
      0.09248207676169495,
      0.06124309164491837,
      -0.048617402838612434,
      0.014855779863530538,
      -0.18213845357457997,
      0.18104419331390226,
      0.09778694764860174,
      0.014264164361323661,
      0.02879197190026711,
      0.15299202594432892,
      -0.14564652846010817,
      -0.030831690576731297,
      0.11014773326736588,
      -0.13940961720828848,
      -0.07297867760714494,
      -0.017208441266466923,
      0.13298641304254566,
      0.12923302376474138,
      -0.0975546916022228,
      -0.031264808113987574,
      -0.2236617860887694,
      -0.07309929255646946,
      0.2182352098925131,
      0.18586178165285694,
      0.05033773283308868,
      -0.059707070640755866,
      -0.0959195064651312,
      0.1174689187275001,
      0.1520823056474871,
      -0.174846853789682,
      -0.1763794488475529,
      -0.07553955126500939,
      -0.17985615488932144,
      -0.16638061751882566,
      -0.17033111705852688,
      0.23635713973696443,
      -0.015109179140645634,
      -0.17076694085851774,
      0.11575454533748802,
      0.15964978665798418,
      0.12436152195634265,
      0.23413570259417693,
      -0.18563511461732618,
      -0.05477262619998141,
      0.061940455783150994,
      0.19021184288841647,
      0.195222464813799,
      -0.19212292930624786,
      0.16181970135983076,
      -0.14311578791217916,
      0.0841244978370716,
      0.18753494125049597,
      -0.055505070159324155,
      -0.056539486681639606,
      -0.04403287468028022,
      -0.24863701525695936,
      -0.08705962970405096,
      0.2307863224020098,
      -0.0008896214206983721,
      0.12253482799184956,
      -0.07984594603719264,
      -0.22663455036453517,
      0.05913231459883744,
      0.22705171882357883,
      0.08484843218868787,
      0.19984723740331684,
      0.05418557023895787,
      -0.2477836284678709,
      -0.13636644219659677,
      -0.14229515643914514,
      -0.24948589848986796,
      0.021748305371962595,
      -0.017186436224545687,
      -0.05156000463962457,
      -0.004527520219863301,
      -0.07983309170131209,
      0.08229410649974916,
      0.19969699389308015,
      0.0973069424165609,
      0.10747419718135154,
      0.11171965144344453,
      0.01972413444530552,
      -0.17221613137710484,
      -0.23035875822722507,
      -0.028939190697271633,
      -0.1422503550676401,
      -0.037162060474576486,
      -0.1133113080706376,
      -0.0764157753313437,
      0.07483625097269281,
      0.012933010418259672,
      -0.03258836947989707,
      -0.09565838781837382,
      0.07627083049921463,
      -0.1730027032728333,
      0.20773772113783295,
      0.17978164665524482,
      -0.14257951318248685,
      0.17524632286239294,
      0.23207249463686297,
      0.027316832064278707,
      0.23008007635023942,
      -0.12088384452514211,
      0.16558625307254354,
      -0.04710384029548159,
      0.1228078471743434,
      0.10291470818945686,
      -0.06022804031480067,
      -0.10127457278464636,
      -0.06745492889215837,
      0.04774699565152846,
      -0.10696335477305102,
      -0.1687010857025919,
      0.09504316147991121,
      0.10486371832347707,
      -0.17039514928268623,
      0.01697855858638858,
      0.19944178792297962,
      0.0640994767484846,
      -0.044788878021315204,
      -0.06837652165662611,
      0.109983347180376,
      -0.12892314578000563,
      -0.08711952156369895,
      0.21792267318065117,
      -0.08447294686764745,
      0.12085032152457875,
      0.15382217176528323,
      -0.10706154110574023,
      0.02851074006691079,
      0.17430311810659072,
      0.17464772081972318,
      -0.020680933849087035,
      0.21596414288975901,
      -0.14363840330184258,
      0.016955500032884374,
      -0.026889338056059642,
      -0.09788740057729661,
      -0.11232752085582076,
      0.05642112456222764,
      -0.15879499961153332,
      -0.1623108272620642,
      0.01806758186365387,
      -0.16539725147920592,
      0.16530046835861628,
      0.1842903630133702,
      -0.07253808789856003,
      -0.24720420913475,
      0.09905696864031022,
      0.22728010888090622,
      -0.005142717756108972,
      -0.10207380350696782,
      0.18965098574684347,
      0.12283206635342142,
      -0.14941800412998513,
      -0.22430825125759452,
      0.0884873949779581,
      0.07384797168321883,
      0.24386083979337342,
      0.10050272706942259,
      0.22290120272785385,
      0.22343819266224685,
      0.13101503030419226,
      -0.010064788009468917,
      0.0757080512398311,
      0.016352247690316346,
      0.2100822218828361,
      -0.07097400075689314,
      0.01455434894249591,
      0.2429616396068771,
      -0.22193454118813633,
      -0.23184783455363617,
      -0.17008536862909712,
      0.13387433895827067,
      -0.232600836886452,
      -0.05534610642731008,
      0.09157584445329331,
      0.18701595784563424,
      -0.041318794668273984,
      0.16970513139701981,
      -0.08812548093643419,
      -0.16361181873616232,
      0.16478050425799934,
      -0.18575883475616078,
      0.027138327828499897,
      0.06756131943782245,
      0.23060203470898982,
      -0.09530468909536849,
      -0.22998571955392455,
      -0.09899838686794182,
      -0.19733397854049223,
      0.11609177196796061,
      0.20736107000012877,
      0.14823063426780486,
      0.09687663453261386,
      0.09361107846526262,
      0.1034627867312019,
      -0.20931735437289917,
      -0.05718786350419808,
      -0.14727471448432827,
      0.1981198951078239,
      0.12776452642952318,
      0.1491757725867694,
      0.10067873522273524,
      -0.08852235039428796,
      0.1017236794269058,
      -0.09855594031510462,
      -0.023395349186439374,
      -0.017650994779702778,
      0.06057617532372017,
      -0.09376534058587077,
      -0.003984457892730053,
      0.11985644004784995,
      0.12991834938721986,
      -0.20947865027516682,
      -0.17793968899379548,
      -0.060985973739149324,
      -0.18063142716284247,
      -0.01750275159523612,
      -0.13933243807044943,
      0.17162811427048769,
      0.054328880633918386,
      0.12739948575672994,
      -0.0966746801765731,
      -0.1946852217031324,
      0.035099435585794925,
      -0.004170999113054963,
      -0.046661424475357816,
      0.12269270002788396,
      0.029659550308927807,
      -0.0396680709935453,
      0.010568358107405584,
      0.09866086675248453,
      0.1022821683562995,
      -0.1222150788837677,
      0.2167478270571685,
      -0.04050355887874396,
      -0.14564449026407522,
      -0.1621306326279614,
      -0.05381969651315205,
      0.062190326465224655,
      0.1734239002646522,
      0.06909903148992058,
      -0.08490479757059677,
      0.1390577548271511,
      0.17267718932448023,
      0.028405639946482153,
      0.0955875766574058,
      0.17489759672916422,
      0.1915773523161589,
      0.12906212308400355,
      -0.0768905717165071,
      -0.00575485380698848,
      0.06663474307901757,
      -0.06204677885799237,
      -0.10263872221538911,
      -0.19182491153728776,
      -0.03593356873344844,
      0.1215328234515331,
      0.10638101986232101,
      0.0870313959405547,
      0.06285526483110587,
      0.13180821758752997,
      0.17620580296851818,
      -0.08126681086788512,
      0.16448548026867404,
      -0.2151258554696237,
      0.1211639693995501,
      -0.08352199569693869,
      -0.003504577513219531,
      -0.08338801446097033,
      -0.12039646846192997,
      0.14201204400525702,
      0.1623484705101858,
      0.20388680836362305,
      0.18020773700032972,
      0.19427452867814737,
      -0.052358182777105966,
      0.20222836580793302,
      0.07489331450778874,
      0.052261647527735766,
      -0.2479819805992171,
      -0.23758974263476507,
      0.22546757309776727,
      -0.09822281653363485,
      0.16844375040913556,
      0.009988627525121918,
      -0.22061551768458904,
      0.050991623339598724,
      -0.17809708555496617,
      0.23290724131755636,
      -0.035837752364921205,
      0.18077665789748415,
      -0.2284699699920924,
      0.057437615325759805,
      -0.1769075140886986,
      0.12996587143116117,
      0.20039307131008455,
      -0.005660477883008386,
      0.008979216851848104,
      -0.01216637055384745,
      0.14868648587530592,
      0.11853673381510765,
      0.07769556529985927,
      -0.016979386414525344,
      -0.042913091276271575,
      0.016332836441695253,
      -0.20333269455846725,
      0.13863678689617653,
      -0.13586703647097076,
      -0.17770282079962602,
      0.1142205271570726,
      0.21976623623181518,
      0.2179293269407903,
      -0.020380556247473758,
      0.2207247411327129,
      0.2237499615896016,
      0.1641624372077194,
      0.0609602215922021,
      -0.11783886817962858,
      -0.23324582000546396,
      -0.15715367041432926,
      0.18731076722489814,
      0.07919109310594957,
      -0.20037214691710242,
      0.16049236622649665,
      -0.22559860181944458,
      -0.2323720996144255,
      -0.11867383273373294,
      -0.04366425586682765,
      0.18907259923142694,
      -0.12209675916483315,
      -0.054077602659444,
      0.010721946185388131,
      0.03197928052144983,
      0.1543584849811896,
      0.022197687001499766,
      -0.21044537602233238,
      -0.22227419668470288,
      0.17839068100287508,
      -0.19447445639519,
      -0.10149172234563836,
      0.23531943915693804,
      0.014095543093709584,
      -0.18882189312619108,
      0.17353937811171016,
      0.13394497081442241,
      -0.017137253050073853,
      0.038981417102444904,
      0.20259649958597592,
      -0.16471867973198367,
      -0.21381478727122089,
      0.10525209783591838,
      -0.19515583068807668,
      0.001006540934103517,
      -0.16741964300599887,
      0.11841618032753182,
      -0.1292347653062852,
      0.0505388165144986,
      0.09192280031196703,
      -0.19957829080533324,
      -0.053100426774316256,
      0.23702648718112695,
      0.18552601487255088,
      0.0836413183118847,
      0.05294367888197338,
      0.16415605448761583,
      -0.08762806035574144,
      0.1513317421349269,
      0.07661558251751688,
      -0.09283829844741526,
      0.0953585120035319,
      -0.2475136436651748,
      -0.15407810570530245,
      -0.10402119328007892,
      -0.0030592135467508164,
      0.09345693127114585,
      -0.19699484102084108,
      -0.23871294026999818,
      -0.24740091625243077,
      0.2315099444315834,
      0.0666132845378179,
      0.11704944513916449,
      0.17118019373617116,
      0.24486794634351922,
      -0.12900812240728204,
      0.03548356520125989,
      -0.19141730472442575,
      0.18501717215772717,
      0.023273521148013898,
      -0.009461333287497153,
      0.0905996822528195,
      -0.15878893405919337,
      0.051465319584826086,
      0.11450318576375557,
      -0.23421080851002762,
      0.09065860252930757,
      0.16161852537814014,
      0.21263887120975378,
      -0.24058776728076325,
      0.005413922183434561,
      -0.11737107831003274,
      0.12755433097659313,
      0.017720024519537136,
      -0.049915721225676724,
      0.18154914500663666,
      -0.1872040989918085,
      -0.22014893188375112,
      -0.11271980071946563,
      -0.11040404506195745,
      0.17389996940211533,
      0.17473031408185785,
      0.20978568390528868,
      -0.053934863353208407,
      -0.1452900710932445,
      -0.1007564605729464,
      0.02105494937176261,
      0.17747795446447734,
      -0.22098001393275962,
      0.23669852352753212,
      -0.0046692303298629945,
      0.21115429169111039,
      0.0844972581708811,
      0.230186821399964,
      -0.12459279740142559,
      0.050744213783091296,
      0.020284812910341787,
      -0.2389865018753563,
      0.15223113433647406,
      -0.20110461390993434,
      0.033039582419600366,
      0.05864881438210906,
      0.1612579286352967,
      0.15748098543196676,
      -0.10088319998775552,
      -0.02497643075850825,
      0.17243539903467398,
      -0.2206523709401037,
      0.22611952472838992,
      -0.16270068171706897,
      -0.09233201519668854,
      -0.18788808481343955,
      -0.17027881243411586,
      0.14808335220716645,
      0.12182536859368992,
      -0.02812642044642194,
      0.2109677486984327,
      0.029923638174400413,
      -0.025528620405917968,
      -0.10398989150501792,
      -0.22111310730432648,
      0.20669859756839914,
      -0.04642750894222514,
      -0.015655109380567134,
      0.2194545792642295,
      0.23053724217152405,
      0.08604170523765814,
      -0.22677448271959105,
      -0.09766890855255328,
      0.12025631390164582,
      -0.2205219815163369,
      -0.08015651099420484,
      0.24854879569491128,
      -0.08778401045036288,
      0.11964228958399709,
      0.14369508425207855,
      -0.092031428834141,
      0.1304456578035088,
      0.11460159898848121,
      -0.1671742874354834,
      -0.09467835781992395,
      0.11825406316491593,
      0.2436002044403195,
      -0.12081925884905675,
      -0.16419615803806137,
      0.07507067677172663,
      0.12576208599541855,
      -0.16641185664078484,
      0.06320783941637365,
      -0.07080239301125679,
      0.007448891380198219,
      -0.20322093185703277,
      0.13202150067076351,
      -0.1962961729056335,
      0.1024332116074585,
      0.05123180722286136,
      -0.06777126132685041,
      0.2278517861981207,
      0.1167450781401238,
      0.15054357655799933,
      0.1339049937523888,
      -0.03177519266107065,
      -0.05673298519318759,
      0.2483677860345862,
      -0.22231275431467723,
      -0.15253076760850254,
      -0.01600473302272104,
      -0.06963858631363068,
      -0.21528988890220657,
      -0.22997502358758515,
      0.07299830915893113,
      0.06251227443709684,
      0.07793238337979236,
      -0.197263878686538,
      0.22341811088674252,
      -0.22177573727667899,
      -0.07530309008790376,
      0.21349601824956466,
      0.09696668942173625,
      -0.15090284374359136,
      -0.10699392615726938,
      0.10127071996848686,
      -0.18033806477288788,
      0.14056759975315025,
      -0.22723411952173944,
      -0.14959556075215186,
      0.08901625782172845,
      -0.1688340920011176,
      -0.24701893163345523,
      0.14659621476388357,
      0.05651717733879402,
      0.092268939986767,
      -0.16514545666922192,
      0.09750328682270087,
      0.23748413993474127,
      -0.06662620912084016,
      -0.16264656602307692,
      0.21224068662412882,
      0.16920372210819623,
      -0.06697224057923717,
      0.1498713343296228,
      -0.12735484094029453,
      0.07461596569015999,
      -0.05235967493534771,
      0.11929076614992645,
      -0.24224535059909408,
      0.21968449142377133,
      -0.18574540652346533,
      0.13227512784220874,
      0.040180403734149994,
      0.20699919996523308,
      0.16891496685613444,
      -0.07532000558906554,
      0.18049838320654998,
      0.026906905360787103,
      0.08418609157523527,
      -0.1708260921466267,
      -0.02543856843094011,
      0.1812683080083497,
      -0.1339104682066643,
      0.06575883989909692,
      -0.027672950726372048,
      0.07161300601075532,
      0.05683137021626278,
      0.17475591433909804,
      -0.011922993600517628,
      -0.22757198501138604,
      -0.0631247314314945,
      0.24995209548644143,
      -0.006061202810749955,
      0.1670581898452747,
      0.15287608529650698,
      0.12340987055485109,
      -0.16150850970390773,
      -0.01018955231542662,
      0.09598293360697258,
      -0.08993213997751476,
      0.20956808125483828,
      0.23644109205842995,
      0.0065099696325242595,
      -0.05356492349902309,
      -0.15389801917701845,
      0.018916169055471332,
      -0.22309914689759675,
      0.1073308666644171,
      -0.09306988939708061,
      -0.205194841453199,
      0.08487312741985337,
      -0.08996601544803368,
      0.007963310777071686,
      0.0861310465063938,
      -0.2199186712840977,
      -0.09381204866352871,
      0.09146353089789327,
      0.17702467080492346,
      -0.01785410483840716,
      -0.038058803655117324,
      -0.24818105467717483,
      0.0661779761107616,
      -0.2419856753331947,
      -0.03373927289552503,
      0.10050087835382254,
      0.16930656134143834,
      -0.023335660584047346,
      -0.1321190502395817,
      -0.10598962800626865,
      -0.04292885560644927,
      0.15287067383974312,
      -0.019036096728628382,
      0.17217653931089444,
      0.12672039541319585,
      -0.19163606889465395,
      -0.11852440687249244,
      -0.16168486018159367,
      -0.07669123477806461,
      0.11744119627722066,
      0.04709091342979571,
      0.04237510991249904,
      0.0486318400410482,
      -0.16439164672959122,
      0.15676897673395934,
      -0.10209649921716824,
      0.05791383839559794,
      0.10447255020948515,
      -0.2042994767540976,
      -0.08958665428267365,
      0.09724530068456466,
      0.016807165504532984,
      -0.07498510682641646,
      -0.10355018695502927,
      0.19897062753208605,
      -0.22188253004663128,
      0.09261024565572779,
      -0.114875717708744,
      -0.07965633723067156,
      -0.04602766138807529,
      0.11578568168416142,
      0.13082254817275707,
      -0.21179941331556973,
      -0.2039071343226881,
      0.09316940736802543,
      -0.17898720915903837,
      -0.1840110146421397,
      -0.22093788041206608,
      -0.12876285603693938,
      0.20418732760204927,
      -0.028773547055217674,
      0.05309310649586957,
      0.04528866029150996,
      -0.11428021549751183,
      -0.06496603065185003,
      -0.181739036762185,
      0.13403782038958129,
      0.08377197830853339,
      0.040884437952652286,
      0.18169769418863457,
      0.06449533291538906,
      0.04601651982978966,
      -0.23379491692648025,
      -0.17296814373331054,
      -0.03866540468001156,
      -0.10998410577729573,
      -0.16054645326338196,
      -0.03868218189483591,
      -0.04847030566037214,
      -0.14974820565608288,
      0.16244123888981438,
      0.1375868527575984,
      0.23370455351103303,
      -0.15921649660535359,
      0.03849465015705311,
      0.015032784922602571,
      0.013622867005244677,
      -0.12870720971629168,
      0.03040417932846423,
      0.14485100575813986,
      0.033677755135997633,
      -0.18560101594568412,
      -0.02826766436033895,
      0.04169527708300963,
      0.01699709951887579,
      0.23795223787239478,
      0.015797657273797783,
      0.09168386035668241,
      0.06727877495819662,
      0.03579492685575986,
      -0.06944441719793498,
      -0.08972610798290737,
      0.15597629037235772,
      0.2159494600018464,
      -0.19026188624810725,
      -0.0445199699565329,
      -0.22256504377368003,
      0.09613527324210175,
      -0.21922624014468384,
      -0.1866916378849126,
      0.0244176577536222,
      -0.09140281565729791,
      0.04226135050233998,
      -0.24319876011705505,
      0.23152287535906635,
      0.09409993475812134,
      0.04223406352397058,
      -0.0674724387338736,
      0.07775799354528506,
      -0.031757432826950927,
      0.22170408364632427,
      0.2432920887667665,
      0.09857386204022617,
      0.1984535762651104,
      -0.23985435819631573,
      0.23221865262145097,
      -0.24708816465275513,
      0.1194201109530102,
      -0.23759958263004355,
      -0.22392341415103106,
      0.199273680706412,
      0.21433186377256896,
      0.08709455952442574,
      -0.01677141350906003,
      0.15569249710891014,
      0.18963160312576716,
      0.026900399780034223,
      0.15842723848899298,
      0.0910710849509449,
      0.08531100117136636,
      0.21171716247898842,
      -0.16497578850304223,
      0.21344344201112198,
      0.0850411421805744,
      -0.16507641588362654,
      0.10568067707992312,
      0.13689120873299127,
      -0.046207482714410275,
      0.08013333954114887,
      0.21032919145754908,
      -0.21641136734701938,
      0.1715642280758966,
      -0.11872472926864863,
      -0.1763896996860611,
      0.07972468100418928,
      0.03494788058032905,
      -0.03882214329990891,
      -0.0640046371747906,
      -0.09955279333594996,
      0.11108451449675533,
      0.07138233734514854,
      0.18409002996505452,
      0.02538072892134502,
      0.021902880550733528,
      0.05516023456451946,
      0.08322445842762355,
      -0.17533712140926905,
      -0.15033658785972387,
      -0.09968589919639653,
      0.24637600319414205,
      -0.005294291244307081,
      -0.1279620474763855,
      0.14184379214263493,
      0.09518808619670993,
      -0.219775083763243,
      -0.20045292614402965,
      0.18238178019857054,
      -0.14040118061018475,
      -0.05599306944083954,
      0.19960297818185202,
      -0.04892959356783727,
      0.061836015594988525,
      0.035579421168122405,
      0.06743598468306372,
      -0.15185829311478366,
      -0.175662285997082,
      -0.11702926596545021,
      -0.14344776609691878,
      -0.02515377251479417,
      -0.1915893558392176,
      -0.2256700835945437,
      0.21138217117421454,
      0.07970844644413705,
      0.003812969652548348,
      0.12115170424212524,
      0.09702168123428112,
      0.05371851317106496,
      -0.20574860432022618,
      -0.10047870217755789,
      -0.23577155966731855,
      -0.1275928239096063,
      -0.1413744619418945,
      0.1123839447777038,
      -0.14185843934815517,
      0.21582042966163928,
      0.15437920178346787,
      -0.20764940435724144,
      -0.09156115866892245,
      0.0034975936112525696,
      0.15183927151555465,
      0.1746966042587036,
      0.04000429877032091,
      -0.07461972691164948,
      0.22662503225564806,
      -0.18787372869381674,
      -0.10319863466262497,
      -0.16625020012933533,
      -0.07563552337665808,
      0.057474447395675754,
      -0.062154036438101856,
      0.07539013365129887,
      0.05941508012365537,
      0.2336430418590349,
      0.16121781630347776,
      0.16793549271323854,
      -0.15424029783203363,
      -0.1841446852916443,
      0.0906890825360182,
      0.0370518126976051,
      0.010332622034866623,
      0.23178183255237556,
      -0.21213995279536735,
      -0.054648540070659224,
      0.21102325850524312,
      -0.03788841650358282,
      0.039506400792944985,
      0.10317769264416987,
      0.05692990973682821,
      0.17418932345016813,
      0.0631619174076361,
      -0.12740256302760006,
      0.13549586542950515,
      -0.0032460804744480765,
      -0.052603638790015894,
      -0.229770334130678,
      0.17999672128865496,
      0.15410812820623399,
      0.08856914427163337,
      0.10877461914035347,
      -0.17169120457970394,
      -0.15699032488664455,
      -0.2477224744589553,
      -0.23723420702355885,
      -0.05372389990484144,
      0.02979962902811656,
      -0.09509721788733094,
      0.1387988147020931,
      0.09863602196429355,
      0.08860815894652113,
      0.03422835530261209,
      -0.10066073614995691,
      0.18472910675414145,
      -0.055295231498117436,
      -0.11105914799880007,
      -0.2108741856599759,
      -0.23164197140394333,
      -0.24446932838572388,
      -0.09070848783891217,
      0.05199089529375839,
      -0.14834055640917299,
      -0.24828317235988756,
      0.19627710892742634,
      -0.13272027180272,
      0.24818130790969983,
      0.1068919279864659,
      0.23340094580343568,
      -0.01911759170144417,
      -0.039557687417038745,
      -0.10423802774868518,
      -0.04908272202922681,
      0.05171261777536884,
      -0.23217869527775814,
      -0.09964955927235064,
      -0.06441469116625587,
      0.11813566332682085,
      0.23379300997793206,
      -0.10851709449248492,
      -0.18716785462268398,
      -0.09012687946795345,
      0.0770142318679855,
      -0.1438001775409365,
      0.11909361823823689,
      -0.03796698200497606,
      0.19659633990489223,
      0.0543255374287932,
      0.10314027865010544,
      0.24117967941386392,
      0.17862205905062156,
      0.22422991819559074,
      -0.005623230574838545,
      0.1368074883623424,
      -0.14822554168899837,
      -0.0525261626696768,
      0.23736886750217634,
      0.1706476889331684,
      -0.039471915448820394,
      0.08291581304936008,
      -0.08846402146443971,
      -0.233028397087501,
      0.11147187602718767,
      -0.011567893318540023,
      0.09811813433819921,
      0.0466249677257744,
      0.1809217250176045,
      0.10638799709529989,
      0.1530217494811636,
      0.18156112432558674,
      -0.03358600676744605,
      -0.1860831100249013,
      -0.15500798182270342,
      -0.11997878668550904,
      0.2166395331651017,
      -0.14982003735408272,
      0.04603643226119797,
      -0.1411759831625547,
      0.09348149352423946,
      0.0024927427088084486,
      -0.22316926827678174,
      0.017001416162829464,
      -0.11861604428148481,
      -0.1445955830687592,
      0.02772841546722099,
      -0.17476166690742362,
      0.1642686781890627,
      -0.15096272618409312,
      0.06483098748352417,
      -0.1616192994086596,
      0.12375726069467125,
      0.10680733039954621,
      -0.03712413108903684,
      -0.06393175526567085,
      0.125772009183182,
      -0.16352931796842118,
      0.0727199522404069,
      -0.23614524653865193,
      0.08653215352169219,
      -0.1542738827505195,
      0.1065975367615985,
      0.13258493974766927,
      -0.1931887131243783,
      0.2176744397595503,
      0.10724233471281835,
      -0.04715053892867482,
      -0.04610585962379732,
      0.11695119574636642,
      -0.17485945642723244,
      0.11361827915239575,
      -0.14063797514260434,
      0.21414147401592215,
      -0.02939329695883297,
      -0.09461223870915225,
      -0.12565100702275483,
      -0.2428497299946883,
      0.0739891802674949,
      -0.07417665486461916,
      0.02231470745724301,
      -0.2280068353885244,
      -0.1598430674852508,
      -0.17845196656403778,
      -0.053785233570926794,
      0.19850674084480652,
      -0.019767964051597198,
      -0.15558822513484888,
      -0.1667428597824686,
      -0.19636082198178434,
      0.07194328173278447,
      -0.2018217848299922,
      0.16977430128836418,
      -0.03221438907106505,
      -0.008093429215137837,
      -0.04394349321004276,
      0.1234971954835773,
      0.09451783947818321,
      -0.06030206989424747,
      -0.23989532487948673,
      0.21296708327768699,
      -0.02865656401164457,
      0.15545716484270922,
      -0.1473340806603194,
      0.016710752037899734,
      -0.004432044749536568,
      -0.21775646090494655,
      0.08080454611359811,
      -0.18563858641379444,
      -0.09468696944581889,
      -0.10363388558245656,
      -0.11058697056384892,
      0.0643011614549383,
      -0.016840099522421048,
      -0.014117069302340135,
      -0.014370321686326626,
      0.23350094693778012,
      -0.034815980402612134,
      -0.2224597621334663,
      0.1853685037606,
      0.018589858681783145,
      -0.07898319951793786,
      0.03578284178000002,
      0.13916772887936418,
      0.19460123344695712,
      -0.161380448891024,
      -0.1117292196066777,
      -0.12850107551354595,
      0.15692925275842273,
      -0.09300589076453453,
      -0.10642215998671695,
      -0.09694351913535931,
      -0.1575245448794068,
      -0.20276242100687641,
      -0.14698154948918518,
      -0.2331980514797528,
      0.0033048202726571607,
      0.13760428933789132,
      0.24533672336107637,
      0.01452385601508449,
      -0.1490144898475197,
      -0.020249431418992048,
      -0.23578924804200446,
      0.23771441117438963,
      0.20772070012398425,
      0.19137836652427553,
      -0.2445650053595007,
      0.1833070151502907,
      -0.188592067021928,
      -0.19332650093085113,
      0.23391569438149018,
      0.10632194654874955,
      -0.19112773327237587,
      0.23461472569134206,
      -0.010578997171557969,
      -0.193912921252888,
      -0.13163347044894563,
      0.15506209883969652,
      0.048994433944241245,
      -0.061092745440482654,
      -0.0740880603972186,
      0.19631592156989752,
      0.20488645200520228,
      0.1524644985062149,
      -0.1594446386054726,
      -0.03720899253590454,
      -0.061673880862285035,
      -0.14273707636662725,
      -0.14794045655835347,
      0.09260515915907264,
      0.07890951671189839,
      -0.22876210803261354,
      -0.018482422527073772,
      -0.15828926456860865,
      0.15334125420739214,
      -0.0553291763203107,
      -0.026660716472688195,
      -0.21892058103744777,
      -0.06638779198835237,
      0.2461331457611935,
      -0.20212305082832588,
      -0.05970748218348765,
      -0.17834473201458545,
      0.23317314225306995,
      -0.01738672046087336,
      0.1419987835570269,
      0.15033675491976312,
      -0.15648301777768825,
      0.20662264527894586,
      -0.12464957190826353,
      -0.2468858052269851,
      -0.1684938581340416,
      0.1119533422452112,
      -0.13170355025635566,
      -0.10044759117169466,
      0.04119802051003363,
      -0.2495816750375185,
      -0.10960242507911927,
      0.13450008621265952,
      -0.23101267973970901,
      -0.15505712912542158,
      0.16038228494112272,
      0.11791925343743309,
      0.1998069460765478,
      -0.05779641515809014,
      0.24752439695896478,
      0.23164778352202997,
      -0.18738769333815303,
      0.020219222492252942,
      0.0795676123986846,
      0.18918334291328076,
      0.014989465399924573,
      -0.162688655282625,
      -0.18527163736730434,
      -0.07130842292917611,
      -0.17314808121608904,
      0.05585939043495308,
      -0.1930787231412499,
      0.04179287225328926,
      0.03763313900837911,
      0.12067343438971068,
      -0.15805272476701104,
      0.017322297012108967,
      -0.02485342701230675,
      0.21518675785766306,
      -0.18093547613163669,
      0.021047179656729087,
      -0.12572260370796834,
      0.1739559660913516,
      0.0984544045708689,
      -0.1760224146203988,
      -0.042614941560427944,
      0.18024738001381374,
      0.12463160547046609,
      -0.16506318691512328,
      -0.10898355165314866,
      -0.22237038246961655,
      0.19765642838992864,
      0.24353424898426773,
      -0.01843160333584498,
      0.2173438559226113,
      0.06940455406380197,
      0.1338442816967882,
      0.006051985755499811,
      0.20858319872345715,
      0.213649288249051,
      0.12196871892419447,
      0.11070632828466387,
      -0.19516854845219178,
      -0.21643482412631165,
      0.17875089369353592,
      0.1316094473448119,
      -0.08518526327845821,
      0.09801500402877261,
      -0.06026741386278178,
      -0.06674082841489704,
      -0.02232694885046027,
      0.16306582942414682,
      -0.05889004139747711,
      -0.15843527341860864,
      -0.162515266429899,
      -0.22029936439028575,
      0.196796822643881,
      0.14720246517903512,
      -0.13789367842378758,
      0.022476528555790964,
      -0.07570272558057561,
      0.15952003643815016,
      -0.10401568725172089,
      0.08798713069539094,
      0.1908997299746394,
      -0.026155772920179288,
      0.005566942807971931,
      -0.16475324132526759,
      0.15933979508250035,
      -0.06392341257028294,
      0.13255927193547046,
      0.21909350613228945,
      0.08049149604897288,
      0.15023031109872886,
      -0.2113554730108283,
      0.02924966521418715,
      0.013847699929230184,
      0.13279724579077756,
      0.19807467279919405,
      -0.1589980480447966,
      -0.09557255189981462,
      -0.18169191022642794,
      0.1868708418069544,
      -0.24673738732303863,
      0.014460452866906282,
      0.15853591793701044,
      -0.19665265564456846,
      -0.032602298291850684,
      0.031259780441552254,
      0.22911821323167653,
      0.10288930586179307,
      0.23707693157156973,
      0.08924466423225652,
      0.16020833379040306,
      -0.18610574283776454,
      0.2289295309880679,
      -0.22566891173740955,
      -0.0033113328911224538,
      -0.03982326834217781,
      -0.13022594810971233,
      -0.006497104783934227,
      0.09072904968436957,
      0.08853614896925621,
      -0.1764640999553177,
      0.10233890416981128,
      -0.04444678860903595,
      0.22822523939116013,
      -0.1785329709705732,
      0.00277537479577733,
      -0.12378731760427941,
      -0.24601987138024972,
      -0.03016592284609576,
      -0.13758535868996596,
      0.14018045394084827,
      -0.03910268475733686,
      0.0006978300933358494,
      -0.0011457537135886042,
      -0.14369737137541683,
      -0.17159093141743365,
      -0.17708795487548407,
      0.12237740217124721,
      0.04825312439861712,
      -0.18589090604257008,
      -0.23442371920999766,
      -0.0892580688308156,
      0.08327198012852022,
      0.14901146550113337,
      -0.15313588021516322,
      -0.2197680506523566,
      -0.08646572311492334,
      0.24939625825476308,
      0.01346246861059458,
      -0.23058316500286002,
      -0.02225908383034847,
      0.003244114251404695,
      0.18508693583870717,
      0.06379786999502496,
      0.025562516576770944,
      0.10029237280300723,
      0.16548446926642046,
      0.11432557544702132,
      0.05344513191435918,
      -0.12903218344658346,
      -0.023748344719092984,
      -0.01691422400144682,
      0.03024140399177566,
      0.2201160368820912,
      -0.19598722116587514,
      0.23225356420072185,
      0.1494013062571506,
      -0.0424010109089869,
      0.13006658509719238,
      -0.16502029523550987,
      0.17713574500472257,
      -0.1074641025147412,
      -0.028881090349773486,
      -0.0860669285303961,
      0.22384496016018562,
      0.21314374146624626,
      0.09709278848442349,
      0.2443609100364228,
      -0.11591073088822773,
      -0.20195174329378074,
      -0.08736491975993,
      -0.07377984943435167,
      0.18534846969879126,
      0.1218933283014697,
      0.02701808301435671,
      0.23226599610172954,
      -0.13763025915552374,
      0.2344490834257606,
      -0.04446535792156803,
      -0.22940083680887113,
      0.024744905789701344,
      0.1924993718542909,
      0.24212276428559482,
      -0.15745953385552575,
      0.1485910595478553,
      0.12629876676541307,
      -0.20770879772248618,
      0.10991565570165396,
      0.08378091443446167,
      0.2028169033397686,
      -0.22842965404002363,
      -0.1871040993840512,
      -0.1810661523263567,
      -0.22018579509941416,
      0.12259874920107128,
      0.04237190695748594,
      0.13557056503407938,
      0.14104116328451,
      0.06305133130736484,
      -0.026233062165933574,
      0.044290680435018326,
      -0.12499450851419658,
      -0.12764318940220776,
      -0.0991662664103608,
      0.21719892803766871,
      0.05568432459626654,
      0.218166597524583,
      -0.11948397580183845,
      -0.2127036060896711,
      -0.1999040937207877,
      -0.23169221362467396,
      0.11224488224272178,
      0.07595712426037898,
      -0.24612430301899818,
      0.15950362537790547,
      -0.2079919542602776,
      -0.12133475792362519,
      0.21857809844768938,
      0.2199960905803034,
      -0.08073836046818827,
      0.18180474253481244,
      0.10250242360764228,
      0.19157857416569696,
      0.11356606242997747,
      0.1918907012032406,
      -0.10143639405819066,
      0.17254768250106456,
      0.025804937901473424,
      0.1588993915791242,
      -0.15047427244784717,
      -0.03141795288168814,
      0.03650075500438432,
      0.023854687754590154,
      0.06001955691171673,
      -0.06985659244666309,
      -0.18852611671265557,
      0.001929299190193523,
      0.08897868994387309,
      0.22502141500430006,
      0.0740326637704754,
      0.12251081112080969,
      -0.2227303801134029,
      -0.10388923684284257,
      0.12669302319273817,
      0.23137832387103552,
      0.03850237971157228,
      0.03337331556126061,
      0.19538707974637826,
      -0.23274323039756595,
      0.2497387829945979,
      -0.1574885732575776,
      0.14769831166561626,
      0.09389611498218337,
      0.00034372055027342974,
      0.08272383670182004,
      -0.1513833146143907,
      -0.005914801580387596,
      -0.052281915920771305,
      -0.19799325273103668,
      0.20744313285717803,
      -0.14978855569044996,
      -0.2329615893167306,
      0.09066583687672497,
      -0.18528620236112187,
      0.1897856951626738,
      -0.2321384645870247,
      0.01984573535719536,
      0.2141268954535261,
      -0.14853289537964176,
      -0.03897086606785882,
      -0.04067834382416102,
      -0.05362000170239267,
      -0.12297069831211699,
      0.2088397540030983,
      0.21245901504663806,
      -0.13392501394988227,
      -0.22689187350116746,
      0.16571968151200217,
      0.055580278457084964,
      -0.0424579072830526,
      -0.08066916407564118,
      0.12409286816019999,
      -0.10075308934997323,
      0.19209483990189197,
      -0.20271133784079004,
      0.12835624406917212,
      0.21572707688489706,
      -0.169226973682349,
      0.00960135895590758,
      0.04308304811547187,
      -0.10653928456783734,
      -0.1547727887089771,
      -0.14741217125300266,
      -0.22837031648185824,
      -0.2169565109975667,
      -0.1755747131773419,
      -0.1880889288678827,
      -0.1826571736504592,
      -0.0834373718103566,
      -0.11080061397079527,
      -0.06558138154919674,
      0.21485241638729818,
      0.06182758144938172,
      -0.12620277213711667,
      0.18187376973667646,
      -0.05061962096662059,
      -0.011885755767690798,
      -0.058952887744102345,
      0.0990236535357461,
      -0.19260282667805922,
      -0.1552371574376366,
      0.020591351336400388,
      0.1358967683304163,
      0.17043880695390817,
      -0.06551109800567012,
      0.24292704294689693,
      -0.16192462306546218,
      0.04092738115094885,
      -0.14139367688221677,
      0.09158474395503252,
      -0.00954486495982998,
      -0.2291430727041171,
      -0.21860298537206518,
      -0.015696240339396372,
      0.1509805288568134,
      -0.11431146668618747,
      -0.0328996627116227,
      -0.10348011862671536,
      -0.24512069787325885,
      -0.08507874074190525,
      -0.21202440947399337,
      0.1357833850155919,
      -0.13604777200370072,
      -0.14990273711521213,
      -0.053946924265319274,
      -0.11394218392793037,
      0.24681172886630143,
      0.1491493806546842,
      0.12871843683614753,
      0.18441755889128997,
      0.2357356092097403,
      -0.22046062083459217,
      -0.03535542164252864,
      0.020925921837798955,
      -0.11758192097010245,
      -0.06332230602179229,
      0.2185602383206774,
      -0.1301611763147616,
      0.13189433069098938,
      0.004346928620099888,
      -0.19378000003542928,
      -0.01609747004433404,
      0.24703985837819697,
      -0.0660782630017075,
      -0.03484254549326965,
      0.21706912934123557,
      0.2342858510521444,
      0.04742792800521528,
      0.13078835897749114,
      -0.04471877731710078,
      0.24004425432416387,
      0.18063626952230977,
      0.24580558525129576,
      -0.17980610733470753,
      0.17181275988924039,
      -0.21494283879906634,
      -0.04244894414250133,
      -0.1545468368358784,
      -0.14082665485381507,
      0.08929416845413568,
      -0.0013352333403437444,
      -0.1473164086954697,
      -0.12749522537604857,
      -0.18593043993744052,
      0.2479239727989072,
      0.18462618136815273,
      0.08670222939840433,
      -0.1723727879565442,
      -0.18955484799899958,
      -0.03460502759109413,
      0.012691134319762154,
      -0.1258342910183749,
      0.23015140138802676,
      0.21844241786092594,
      0.11436001431919574,
      0.24513521969672075,
      0.18624480697028706,
      -0.09463019589931332,
      0.21787500128044057,
      0.16954530685868852,
      -0.16898934634001295,
      0.10076741955833213,
      -0.07037667272935477,
      -0.1526345095632391,
      0.15158735588326122,
      0.029476849018761464,
      0.2185126990077939,
      -0.19470452962131835,
      -0.07407904956905559,
      0.2055773233949605,
      -0.16887006749017536,
      0.15092491966191662,
      -0.094322590418913,
      0.22580843305970993,
      -0.04794601126730047,
      -0.11766511027648607,
      0.0598712893566713,
      0.2115302046700827,
      0.19188244095776225,
      -0.17145561417166277,
      -0.18649572801673586,
      -0.18653834707980194,
      -0.13032372075634008,
      0.12237674881824373,
      -0.2310203718322133,
      -0.1629333724774053,
      0.11277217847529897,
      0.0020940217719006005,
      0.17621560101638994,
      -0.010608290117546382,
      -0.07685557760441414,
      0.023059784456273547,
      0.19378103561104415,
      0.24958882870961607,
      0.23114573717728437,
      0.14519183303776934,
      -0.19954010439532693,
      -0.15327610262220315,
      -0.23041760461142136,
      -0.1825374657398499,
      -0.15641605410666048,
      0.2107202970818723,
      0.10085673046161053,
      0.24387698748576248,
      -0.18139367518009325,
      0.1580127022977728,
      -0.21588004875140715,
      -0.012623766865415609,
      -0.1172982577370707,
      -0.07746053252266738,
      -0.021219075314672042,
      0.18457589398197738,
      -0.050084166533061136,
      0.05659529519142931,
      0.06448529124674124,
      0.04866021892627431,
      -0.21404189852345673,
      -0.13753880185664297,
      -0.2425578139545967,
      0.1892217957489259,
      -0.15011763128392336,
      0.18788632711797665,
      -0.017465915098269336,
      -0.027908290990780404,
      0.18994677820981515,
      0.11133515744776556,
      -0.020679840414247752,
      0.14323147364918537,
      0.03500453495421241,
      -0.1875437421382008,
      0.134645244861674,
      0.20137433199111332,
      -0.08538794625434515,
      -0.08776935302842526,
      0.14758809961788705,
      0.17996391257013494,
      0.22277199623219385,
      0.005456002817606109,
      -0.23367575929840378,
      0.23248942487159385,
      0.10633970714893692,
      -0.1142314676222363,
      0.20885335611699757,
      -0.22544176222939022,
      0.079451908923791,
      -0.07219788985004227,
      -0.04146445778053526,
      0.059931113151130144,
      -0.2335786136582379,
      0.2065786508256176,
      -0.11326096325817891,
      0.18555224222116906,
      -0.15896409272126494,
      0.16340376508181165,
      -0.026796421055242436,
      -0.20099886388389887,
      -0.0006219483459841135,
      -0.10575872214117638,
      -0.05505482051977578,
      -0.20167386530267872,
      0.03310994884962254,
      -0.04003878569089775,
      0.22860639430120144,
      -0.07795816111455561,
      0.20224371916217604,
      -0.17304280531674132,
      0.08314232472657468,
      -0.23556679029048716,
      -0.16548026916987346,
      0.09434649267426581,
      -0.011247339278688928,
      -0.1275901616300512,
      -0.0047027845473898156,
      -0.11595057377477397,
      -0.08944387401768433,
      0.1461612114090819,
      0.09347587589172429,
      -0.23374417310879142,
      -0.16825936140616532,
      0.027022204339143596,
      0.038876695585234766,
      -0.12307694866708135,
      0.17380169202379236,
      -0.008593597688154209,
      -0.06848426556725068,
      -0.15800749351074067,
      0.16162155048525545,
      -0.14634495013673482,
      -0.23834144278639002,
      0.040207438591132294,
      -0.17725167395281288,
      0.19571535800320955,
      0.1869045859874997,
      0.2376834332855543,
      0.09023453857811004,
      0.23709036592358423,
      -0.16195200988819686,
      -0.044741552474642066,
      -0.07410046794090414,
      0.20547166894582952,
      0.20559450425568743,
      0.0275920198835517,
      0.23102866586158932,
      0.10247355719872009,
      -0.06681084375162094,
      0.1816976358469251,
      -0.2392358283267192,
      0.22478164307091653,
      -0.05365945111332576,
      -0.09718914077385882,
      0.1969360551526072,
      -0.10535051395061246,
      -0.12456191599751842,
      -0.056287163915051064,
      0.0811679856654095,
      -0.05542335063850162,
      -0.19140569775204697,
      -0.1575406940779011,
      -0.058006320333637396,
      0.11321324754610262,
      -0.04334832595228627,
      -0.10133610948395688,
      -0.1940614455690136,
      0.07027466460664966,
      0.062027026187451484,
      -0.1708085285956415,
      -0.16192081041480344,
      -0.007940295437884048,
      -0.19968101621206524,
      -0.08978676794677914,
      0.04144479177792343,
      0.13485328675205432,
      0.023504567546535293,
      0.13240764834093915,
      -0.08331933348462972,
      0.10346839644253353,
      0.18049256562829635,
      -0.24910509907876488,
      0.018611128653901132,
      0.2293517105404031,
      -0.18502110264152372,
      0.0887942038320006,
      -0.06622432091625657,
      0.04632553075791507,
      0.08557003493350357,
      -0.1726941139289387,
      -0.24251703131501473,
      -0.18284391490020424,
      -0.15716734057847914,
      -0.0020263925563741014,
      0.17890919831487528,
      0.24080425312406745,
      0.002589054103668831,
      0.05285924301760836,
      -0.09327798553485933,
      -0.1249928444393979,
      -0.098129811422844,
      -0.0471353941932382,
      0.24591139880228152,
      -0.01618037915938436,
      0.020210582098424912,
      -0.06144216870344171,
      -0.07399488915296593,
      -0.01345600747029152,
      -0.055091202530704986,
      -0.2014378939839196,
      -0.020833180148223274,
      -0.17703978368066425,
      0.03807934392463763,
      -0.07585326715321727,
      -0.17510392340959324,
      -0.07918041652071772,
      -0.0008854696707256693,
      0.2258736976173346,
      -0.016141480881681936,
      0.2479118177694793,
      -0.2207641433864191,
      0.08243141936290982,
      -0.048917833438316405,
      0.11047099631502028,
      0.12989106611303652,
      0.05310246856579204,
      -0.24354214996391438,
      0.0730557403354164,
      -0.14287464389966847,
      0.14957502171711673,
      0.09634793041627693,
      -0.24127013345324821,
      -0.049925552002698104,
      -0.07745176714306273,
      0.15741517114678533,
      0.10534545944381563,
      -0.10694323266568223,
      -0.1378788411876659,
      0.048759993931343004,
      -0.1552016174115109,
      0.03304292269486836,
      0.04521335825816597,
      -0.05216758002698879,
      0.06949347227665748,
      0.08802058837331089,
      0.01125547257338938,
      0.2150310561097467,
      -0.048568685022087166,
      -0.12949598134233514,
      -0.08922981231811222,
      -0.026435885413898907,
      -0.17337841960390432,
      0.041983725029135166,
      -0.0701832066454045,
      0.09285931259809177,
      0.1953484706822805,
      0.24061558127025795,
      0.0519514256302126,
      0.1849940244183802,
      -0.20463409085141426,
      -0.05124830634973404,
      0.1481384145860748,
      0.10042238067208753,
      0.059784331980406,
      0.12937469545022162,
      -0.17666153593650924,
      -0.15058065775167034,
      0.17320436305386977,
      -0.04345046980429518,
      -0.0516994812144323,
      0.22297372937364973,
      -0.1732326117713734,
      -0.19850852078585673,
      0.15702244936708387,
      -0.174980095388163,
      -0.11235968411250352,
      0.03625780526752298,
      0.11837013343161679,
      0.23922070244248428,
      0.05073893292649695,
      -0.051662354768036656,
      -0.16363064844135156,
      0.005166676742553278,
      0.02405513612004362,
      -0.17728803621977135,
      0.13026527212422517,
      -0.23469174191391756,
      0.03834149443975876,
      -0.18979228015383925,
      0.14371328569690295,
      0.15725710034383883,
      0.09414833251863358,
      0.13192424879727038,
      -0.07111810389344181,
      -0.05706236863235181,
      0.17520468453853466,
      -0.00907254826705034,
      -0.08425302024881043,
      -0.10876919855872624,
      -0.12871929882780397,
      -0.1809299802565172,
      -0.13321413303290858,
      0.1522419247743259,
      -0.0614655923266163,
      0.0051443697825885315,
      -0.07326008247044336,
      0.007716988847114137,
      0.13151196860815773,
      -0.24423105723051491,
      -0.07806526293686383,
      -0.17145691610480163,
      0.03713943182487728,
      -0.14295176092989637,
      0.10785147121103555,
      -0.1670796269987163,
      -0.04008020726474015,
      -0.2148022181972562,
      0.20491323345875256,
      -0.12331663738974152,
      0.18588429234402903,
      0.2178172093693464,
      -0.13634542189332266,
      -0.029532439766374874,
      -0.21321944178093938,
      0.10532558678012616,
      -0.2373092518728973,
      -0.050916318549687756,
      -0.09014278747665172,
      -0.01392995838617489,
      0.1648524655616116,
      0.23897399105977107,
      0.2202830323530513,
      -0.028835248255104473,
      0.05813447032197705,
      0.00037084301033962763,
      -0.04515570319719775,
      -0.20958534455632855,
      0.01030626190982753,
      0.0964246905606686,
      -0.07139209907673627,
      -0.21796977831994907,
      0.12239336765228764,
      0.10083334387880111,
      0.20654862865984036,
      -0.2081135140130737,
      -0.10138964188638866,
      -0.033159488922799574,
      -0.14382401682421997,
      -0.15554233451689975,
      0.12456963522237657,
      0.21568060107676973,
      -0.0014169684074171185,
      0.13988115789448807,
      -0.24458673429133904,
      0.10525190154682434,
      0.14257450985332387,
      0.18912927464804746,
      -0.15568533051240402,
      -0.09404835616334373,
      0.002437526272019208,
      0.2438559472514884,
      0.182818928124444,
      -0.01804931336363169,
      0.06856970938071155,
      0.06533047886666665,
      -0.1542746979985486,
      0.12322429441404031
    ],
    "bias": [
      0.0,
      0.0,
      0.0,
      0.0,
      0.0,
      0.0,
      0.0,
      0.0,
      0.0,
      0.0,
      0.0,
      0.0,
      0.0,
      0.0,
      0.0,
      0.0,
      0.0,
      0.0,
      0.0,
      0.0,
      0.0,
      0.0,
      0.0,
      0.0,
      0.0,
      0.0,
      0.0,
      0.0,
      0.0,
      0.0,
      0.0,
      0.0
    ],
    "activation": "relu"
  },
  "layer3": {
    "weights": [
      0.366456054810963,
      -0.35088265868056595,
      -0.11826000794531194,
      -0.175516976462381,
      -0.20829843535869105,
      -0.07177751246846092,
      -0.2597356939292479,
      0.07325525545407152,
      0.11523092323092443,
      -0.27110840152772875,
      0.07029480863510434,
      -0.09423901354031428,
      -0.23882549394053373,
      -0.007250064270496015,
      -0.2888077641548845,
      0.35483773581219036,
      -0.30369192041055915,
      0.11518000171445686,
      -0.11463990608366792,
      0.3284992657945356,
      0.3842031442306817,
      -0.2671227144624552,
      -0.14465007060822754,
      0.2125421834177289,
      0.08093904026891158,
      0.01326369486911333,
      -0.14567878714988092,
      0.22804518218355907,
      0.1583383798979131,
      0.020730340619051102,
      -0.20829496272888248,
      -0.00991010795419961,
      0.06162373376407182,
      -0.1989091372613918,
      0.012546701865402077,
      -0.2030861001517306,
      0.01057006354667428,
      0.12358241507940437,
      -0.2528847211780978,
      0.03924786211753023,
      0.19136975050010507,
      0.19504560007392013,
      -0.00847539693417021,
      -0.049482309721565976,
      -0.3374912470614614,
      0.28589467647484457,
      0.07974299887416991,
      -0.29498237629277885,
      0.2318230027853102,
      -0.09259903311438722,
      -0.27644454036851185,
      -0.1631985438217578,
      0.2526250480694945,
      0.3518540570560724,
      -0.2693338040715357,
      -0.26067149729194494,
      0.255673511569822,
      0.39388424150095735,
      0.07829134343825506,
      0.027146025471187107,
      0.034151696923922226,
      -0.1875656047361255,
      -0.2605884976688171,
      -0.008865430369958238,
      0.2747852115491842,
      0.3897471507646705,
      0.039135319399487556,
      -0.12459897869280079,
      -0.0055207897590779376,
      0.171335712002338,
      -0.1724730090133537,
      -0.2063040772520681,
      0.2440386106615804,
      -0.40679169359158224,
      -0.3096745229545772,
      -0.28484983337661984,
      -0.09772173446359689,
      0.1381727720639565,
      -0.40209261321755346,
      -0.1562883593313042,
      0.19890864664196262,
      0.21308465987164504,
      0.10299801309053669,
      -0.21065077033885726,
      0.30680537846542266,
      0.40941449454132617,
      -0.1052802828334391,
      -0.09635913642276611,
      0.3199593499662927,
      -0.06474119104671727,
      -0.06088377252934957,
      0.39849166272168557,
      -0.20754274977562498,
      0.28342143824834176,
      -0.04521281065671823,
      0.3635844131391853
    ],
    "bias": [
      0.0,
      0.0,
      0.0
    ],
    "activation": "linear"
  },
  "feature_names": [
    "score_to_win",
    "base_damage_multiplier",
    "respawn_delay",
    "health_regen_rate"
  ],
  "output_names": [
    "stomp_rate",
    "duration",
    "objective"
  ]
}